{"type":"NeuralNetwork","sizes":[64,32,64],"layers":[{"weights":[],"biases":[]},{"weights":[[0.02964779920876026,-0.028877384960651398,0.14310890436172485,-0.10624615848064423,-0.1401325762271881,-0.10291122645139694,-0.06526663899421692,0.0248807854950428,-0.1437978744506836,-0.0747683048248291,0.13772471249103546,-0.09221597760915756,-0.06497641652822495,0.051560960710048676,-0.1370895951986313,0.08794155716896057,-0.017335515469312668,0.17665868997573853,0.03170795738697052,-0.19096004962921143,0.1237618625164032,-0.031526584178209305,-0.13606484234333038,-0.0014208682114258409,0.19724638760089874,0.13596902787685394,0.016680652275681496,0.09660791605710983,0.04801824688911438,-0.014342625625431538,-0.03955414146184921,-0.03927457332611084,-0.12989583611488342,0.16482722759246826,-0.1163422167301178,0.0014915637439116836,-0.040255460888147354,0.1410546451807022,0.05963879078626633,-0.0069098458625376225,-0.19530640542507172,0.014966151677072048,0.015228939242661,0.11596240103244781,-0.13740408420562744,-0.023001261055469513,0.08418530970811844,0.17160482704639435,-0.09032663702964783,-0.1238151267170906,-0.128507599234581,0.18544669449329376,0.002684848615899682,0.07329491525888443,0.019709952175617218,-0.08187654614448547,0.05789439007639885,0.029161429032683372,0.11384072154760361,0.07161641120910645,-0.016489502042531967,-0.09738638252019882,-0.07238204777240753,-0.10161709040403366],[0.0760984867811203,-0.013720561750233173,-0.10439062118530273,0.14413674175739288,-0.15412068367004395,0.09189717471599579,-0.05939154699444771,0.03159014880657196,-0.03895827755331993,0.015785716474056244,-0.15860457718372345,0.024921517819166183,-0.14553700387477875,-0.11082036048173904,-0.1690715253353119,0.0379815436899662,0.16503602266311646,-0.17757833003997803,0.039371322840452194,0.062170468270778656,0.08142884075641632,-0.08673223108053207,0.15639734268188477,0.19405552744865417,-0.13544993102550507,-0.03045450523495674,0.027468577027320862,0.14612728357315063,0.08702511340379715,-0.11025770753622055,0.09246955811977386,-0.0600106306374073,0.017176097258925438,0.052467793226242065,0.18485713005065918,0.05437087640166283,0.019957106560468674,-0.19581764936447144,0.13378188014030457,0.09097640216350555,-0.033310841768980026,-0.15257754921913147,0.05911334976553917,0.19089195132255554,-0.022378627210855484,-0.14723306894302368,-0.048175230622291565,0.14141495525836945,-0.1809718757867813,-0.07730028033256531,0.1916937679052353,-0.08922205120325089,0.020472630858421326,0.17805606126785278,0.12727287411689758,-0.07565310597419739,0.030766870826482773,0.1252509206533432,-0.10578520596027374,-0.05968529358506203,-0.0832691565155983,0.04941241815686226,-0.014336698688566685,0.017632264643907547],[-0.024646827951073647,-0.0943056270480156,0.0810312032699585,-0.05185448378324509,-0.07188044488430023,0.10928567498922348,0.06236330047249794,-0.16521112620830536,0.11945374310016632,0.11527824401855469,-0.09638188779354095,-0.1416301429271698,0.120933897793293,-0.12409163266420364,0.05451437830924988,0.05097318813204765,-0.15171341598033905,-0.09120159596204758,-0.10771959275007248,-0.1875990629196167,-0.1227593868970871,0.030054934322834015,-0.09703732281923294,0.17936259508132935,-0.017257319763302803,0.05728393420577049,-0.035174429416656494,0.0077972072176635265,-0.06817861646413803,0.12706437706947327,-0.07314635068178177,0.0958234891295433,-0.1364733725786209,-0.005410289857536554,-0.1488773673772812,0.11554691940546036,-0.11240921914577484,-0.04571988061070442,0.12765219807624817,-0.09829077869653702,0.1730012595653534,0.13540884852409363,-0.08780715614557266,0.06942878663539886,0.1124996766448021,-0.10079601407051086,-0.12288056313991547,-0.03773186728358269,0.0949118584394455,0.15130601823329926,-0.04714754968881607,-0.11889521032571793,0.17299655079841614,0.13758282363414764,0.1803097128868103,0.0009703479590825737,-0.15409182012081146,0.06652766466140747,-0.13393017649650574,0.1910467892885208,0.012697331607341766,-0.034482188522815704,0.022566339001059532,-0.09777390211820602],[0.06613542884588242,0.1781543791294098,0.08636006712913513,0.19413408637046814,-0.050125736743211746,0.10227315127849579,-0.008080678060650826,-0.06715273857116699,-0.02853621169924736,-0.0850655809044838,-0.08612845093011856,-0.051267512142658234,0.022600632160902023,0.10070157051086426,0.14304521679878235,-0.17578725516796112,0.1463400423526764,0.1645304262638092,-0.17974331974983215,0.0705505982041359,0.10189248621463776,-0.1923086941242218,-0.05121028050780296,0.04015463590621948,0.05408861115574837,-0.018053611740469933,0.1791216880083084,-0.07562381029129028,0.019021376967430115,-0.16077032685279846,-0.1541980504989624,-0.08727782964706421,-0.15024596452713013,0.1866561323404312,-0.06161581724882126,0.07107581943273544,-0.1301301121711731,-0.1004960685968399,0.04327891021966934,-0.18941056728363037,-0.10498592257499695,0.19878467917442322,-0.0335424579679966,0.1168648898601532,0.02493506297469139,0.008514439687132835,0.10369423776865005,-0.17987431585788727,0.11683588474988937,-0.1285819560289383,-0.017180273309350014,0.17929957807064056,0.034379247575998306,0.09099635481834412,0.13958768546581268,0.13049180805683136,-0.07658637315034866,-0.15401628613471985,0.03410381078720093,0.1812962293624878,-0.1488952487707138,-0.1966239959001541,0.03138354793190956,-0.0625198483467102],[0.18757663667201996,0.0480041578412056,-0.0909450501203537,-0.13376064598560333,0.08142084628343582,0.12456275522708893,-0.18840563297271729,0.014284193515777588,0.08862248808145523,-0.05276615917682648,-0.13685466349124908,0.024859046563506126,-0.07466602325439453,-0.0818556472659111,0.040505338460206985,-0.10564017295837402,-0.07721791416406631,0.11383146047592163,-0.18998277187347412,-0.15244145691394806,-0.12999968230724335,0.07165120542049408,-0.03779368847608566,0.18559762835502625,0.016930347308516502,0.07830938696861267,0.06607311218976974,-0.028249910101294518,0.015179219655692577,0.05399705469608307,-0.04390305280685425,0.0685737356543541,-0.050033170729875565,0.14429694414138794,-0.18434779345989227,-0.0028372928500175476,0.10397957265377045,-0.0873098373413086,0.05531321465969086,-0.021895188838243484,-0.037571586668491364,0.013117056339979172,0.05393125116825104,0.06779778003692627,-0.16783398389816284,-0.15028321743011475,-0.05447333678603172,0.10105355083942413,0.17456161975860596,0.19188950955867767,-0.06267551332712173,-0.04687825217843056,0.06935103237628937,0.15172834694385529,0.11638801544904709,0.14289160072803497,0.02954857423901558,-0.039981596171855927,-0.04702899232506752,-0.028774289414286613,0.05548256263136864,0.11933565139770508,0.07451361417770386,-0.027207467705011368],[0.19629603624343872,-0.09608350694179535,0.04173274710774422,-0.008262031711637974,0.040321897715330124,0.09023496508598328,0.13704152405261993,-0.03905110061168671,0.07598791271448135,0.11235204339027405,0.19611743092536926,0.01980827935039997,-0.06685647368431091,0.058598730713129044,-0.15742579102516174,0.17621494829654694,0.10042091459035873,-0.051886823028326035,0.022875264286994934,-0.12468767911195755,0.0717109739780426,-0.16143867373466492,0.14210106432437897,0.1338360756635666,0.1889657974243164,-0.04996207728981972,-0.19202463328838348,-0.10333278775215149,0.012665877118706703,-0.08647098392248154,0.18351294100284576,-0.11991693824529648,-0.029435088858008385,0.009606922045350075,0.014566678553819656,-0.048603083938360214,-0.003590889973565936,0.019572285935282707,0.08426686376333237,-0.039765723049640656,0.0396091602742672,0.06453821063041687,-0.12014050781726837,0.17953921854496002,0.1504652053117752,-0.16449527442455292,0.08154092729091644,0.05218353495001793,0.14225487411022186,0.11651595681905746,0.1594521552324295,-0.05743138864636421,-0.015861330553889275,-0.06646740436553955,0.14790372550487518,-0.19694258272647858,0.16032244265079498,-0.01191970705986023,0.19618560373783112,0.08976541459560394,0.08388233184814453,0.05708926543593407,0.11806844919919968,-0.01041531190276146],[0.16828757524490356,0.07338014990091324,-0.11016938835382462,-0.08949819207191467,0.188928484916687,-0.16146232187747955,0.19000306725502014,0.19479036331176758,-0.1119341254234314,0.08658592402935028,0.09386458992958069,-0.03422725945711136,-0.04842106252908707,0.0905379131436348,-0.19191689789295197,0.1455588936805725,0.19686514139175415,-0.05164649337530136,0.06932878494262695,-0.18976803123950958,0.19124528765678406,-0.10263677686452866,-0.1838192492723465,0.14832596480846405,-0.07359921932220459,0.060293205082416534,0.07553726434707642,0.1276526302099228,-0.14243993163108826,-0.11177478730678558,0.14329947531223297,0.1453123688697815,0.08997232466936111,-0.13026726245880127,0.10246788710355759,-0.16470202803611755,-0.18242335319519043,0.06260360032320023,-0.15357114374637604,-0.1713750958442688,0.17451724410057068,0.1590953916311264,-0.0639418438076973,0.17394377291202545,-0.08550577610731125,-0.08720045536756516,0.08437937498092651,0.0002302881475770846,0.0001279693387914449,0.15701431035995483,-0.06093205139040947,-0.014033757150173187,-0.16081689298152924,0.14491404592990875,0.042578332126140594,0.020159663632512093,-0.11559657752513885,0.1303407847881317,-0.005826540291309357,-0.18062011897563934,0.07067517936229706,-0.04557515308260918,-0.1955127865076065,-0.08633498102426529],[-0.1982860416173935,0.11731703579425812,-0.08086802810430527,0.07842660695314407,0.19193044304847717,-0.09505624324083328,-0.14002105593681335,0.19277122616767883,-0.025846542790532112,-0.17490871250629425,-0.13334773480892181,0.19958975911140442,-0.197393998503685,0.08507462590932846,-0.19066397845745087,-0.03840075433254242,0.10486267507076263,-0.18644791841506958,-0.01562606170773506,0.07763909548521042,0.01755787432193756,-0.12758827209472656,0.03474532067775726,0.05256505310535431,0.1652584969997406,-0.07150235027074814,0.12037975341081619,0.12616746127605438,-0.1684897392988205,-0.1374538391828537,-0.12479957938194275,-0.12595166265964508,0.05996757373213768,0.14396029710769653,-0.0801333338022232,0.055894479155540466,0.13735805451869965,0.046248909085989,-0.16275404393672943,-0.157930389046669,0.18116717040538788,-0.14237123727798462,-0.1291545331478119,-0.06663616001605988,-0.09095796197652817,0.09551108628511429,0.12190943956375122,0.15478670597076416,-0.04761995002627373,0.11876455694437027,0.16807952523231506,0.10132665187120438,-0.12258085608482361,-0.14470912516117096,-0.1536729782819748,-0.13553699851036072,0.1760181337594986,-0.1833118498325348,-0.17852811515331268,0.08093827962875366,0.1123833879828453,-0.02517036907374859,0.08042187988758087,-0.1828603297472],[-0.17686454951763153,0.18349404633045197,-0.03508836776018143,-0.062350619584321976,-0.04401005059480667,0.0012314667692407966,0.11292210221290588,-0.10995171219110489,-0.13624563813209534,-0.0035805022343993187,-0.14088952541351318,0.1853242665529251,-0.05870063230395317,-0.13836181163787842,0.08730577677488327,0.15069939196109772,-0.05179905891418457,0.16939498484134674,0.14825284481048584,0.011041674762964249,-0.18066814541816711,0.07339473813772202,-0.01999865472316742,0.11849356442689896,0.12320291996002197,0.01025307271629572,-0.004563846159726381,-0.16161580383777618,-0.03649158403277397,0.012935827486217022,0.13806769251823425,-0.17913615703582764,-0.11091801524162292,0.19875696301460266,0.16301126778125763,0.13305415213108063,-0.17880162596702576,0.17399869859218597,-0.17970100045204163,0.03339483588933945,-0.09489141404628754,0.17943425476551056,-0.17254731059074402,0.12389660626649857,0.18530932068824768,0.16065172851085663,0.17126579582691193,0.057615455240011215,0.15294454991817474,-0.19200900197029114,0.01761152409017086,-0.10660769045352936,0.1718347668647766,-0.18398895859718323,-0.18956108391284943,0.061129793524742126,-0.105183906853199,0.09864116460084915,-0.15363794565200806,-0.1258014440536499,-0.1002223938703537,-0.11634496599435806,0.020113684237003326,0.15761081874370575],[0.04942584037780762,0.11966031789779663,-0.0864529088139534,-0.14136573672294617,-0.0553462877869606,0.05481347441673279,0.15292778611183167,0.007311285939067602,-0.08473371714353561,0.08270905166864395,-0.18102708458900452,0.04266901686787605,-0.021746641024947166,0.19160090386867523,0.05378495156764984,-0.09163474291563034,-0.027579711750149727,-0.18353137373924255,-0.13932698965072632,-0.027240263298153877,0.1750071942806244,0.057255279272794724,0.026561344042420387,0.045750316232442856,0.09488018602132797,-0.15143969655036926,-0.162414088845253,0.12570814788341522,0.05984179675579071,0.01497559528797865,0.06510870903730392,-0.13174904882907867,0.18294835090637207,0.0436253622174263,0.08668765425682068,0.19671730697155,-0.16738289594650269,0.16398553550243378,0.07815849035978317,0.08940257132053375,0.046938207000494,-0.08345969021320343,0.11133456230163574,0.02855582907795906,-0.057884640991687775,0.05150429904460907,0.05604182928800583,0.029978636652231216,0.1927332729101181,0.006611105054616928,-0.03263058140873909,-0.095927394926548,0.017524559050798416,0.0253079105168581,-0.06211813539266586,-0.11620545387268066,0.008039995096623898,-0.14678098261356354,0.14348065853118896,-0.04348413273692131,-0.03425703942775726,0.19437874853610992,0.09683027863502502,0.18915638327598572],[-0.18111871182918549,-0.06414829939603806,0.1185869500041008,-0.16526281833648682,-0.12039881199598312,0.028796562924981117,0.13296224176883698,-0.11102516949176788,-0.19199462234973907,0.09753062576055527,-0.10040681064128876,-0.039060309529304504,-0.0025155472103506327,-0.1625007539987564,0.08213228732347488,0.1444735825061798,0.1310369372367859,-0.1109270453453064,0.16521120071411133,-0.08385531604290009,0.045329250395298004,-0.18111324310302734,0.15807278454303741,-0.18338318169116974,0.04158870875835419,0.10183665156364441,0.15281008183956146,0.18410366773605347,-0.1319824606180191,0.062495969235897064,0.13847176730632782,-0.020388171076774597,0.11648458987474442,0.13096672296524048,-0.01651924103498459,-0.04913721978664398,-0.12182940542697906,-0.01224555168300867,-0.12746313214302063,0.03597220033407211,-0.10813234001398087,0.18497368693351746,-0.039270367473363876,0.10988976061344147,-0.09286041557788849,-0.17246754467487335,0.10073364526033401,-0.0554608553647995,-0.10794374346733093,0.19920885562896729,-0.08308417350053787,0.155054971575737,-0.13657096028327942,-0.03964907303452492,-0.0819019302725792,-0.14033007621765137,0.0711180567741394,0.14918337762355804,0.031179040670394897,0.012542475014925003,-0.17409487068653107,-0.044922735542058945,0.041910454630851746,-0.04445778951048851],[-0.03459789603948593,0.17844052612781525,0.19362422823905945,-0.010002878494560719,0.047640662640333176,0.19711023569107056,0.178018257021904,-0.08465546369552612,-0.015260610729455948,-0.031416065990924835,-0.08405407518148422,-0.13979239761829376,0.07120360434055328,0.11533638089895248,0.11835921555757523,-0.026682212948799133,0.050614308565855026,-0.18472987413406372,0.199647918343544,0.04511863738298416,-0.020855041220784187,-0.04423649236559868,0.047727230936288834,-0.06382948905229568,0.1751009076833725,0.17366252839565277,-0.016181306913495064,-0.02316894941031933,0.11958149820566177,0.15609204769134521,0.027969395741820335,-0.0957353487610817,0.19192691147327423,-0.06428433209657669,-0.0406833291053772,0.1919727772474289,-0.12632104754447937,0.1720762848854065,-0.1613796353340149,-0.07192513346672058,-0.1352640986442566,-0.016774555668234825,-0.17104080319404602,-0.13389863073825836,0.17497795820236206,0.19186899065971375,-0.1478310525417328,0.16919556260108948,0.17460452020168304,-0.06595900654792786,-0.19986087083816528,-0.02686375379562378,-0.09090446680784225,0.10135354846715927,0.11548405885696411,-0.09318044781684875,0.03642135113477707,0.01276284921914339,-0.07858942449092865,0.08732020854949951,0.09455257654190063,-0.11069750040769577,-0.10248538106679916,0.17127789556980133],[0.016535965725779533,-0.052009761333465576,-0.009278169833123684,-0.023671135306358337,0.045882970094680786,-0.09808599203824997,0.1077243834733963,0.1481592357158661,0.14526298642158508,-0.03342259302735329,-0.1375291496515274,0.0753931999206543,-0.06955157220363617,0.00979516003280878,-0.07003843784332275,-0.12189612537622452,-0.13427112996578217,-0.07109373807907104,-0.12217739969491959,0.1571437120437622,0.18668881058692932,-0.022982865571975708,0.08351064473390579,-0.1296519786119461,0.0481814406812191,-0.11458665877580643,-0.180222287774086,-0.16685785353183746,0.13225935399532318,-0.15429969131946564,-0.045712344348430634,-0.09165986627340317,0.11885721981525421,0.07069051265716553,-0.11258009076118469,0.151349276304245,0.17210981249809265,0.05515368655323982,0.04246033728122711,-0.15892863273620605,0.1021866425871849,0.02391745150089264,-0.17753352224826813,0.1575865000486374,0.16626997292041779,0.03955209627747536,-0.195282444357872,0.189217209815979,-0.15200406312942505,-0.027464697137475014,0.11900071054697037,-0.051163818687200546,0.0775037333369255,0.11229344457387924,-0.16731327772140503,0.07835661619901657,0.09372706711292267,0.15419574081897736,0.10669754445552826,0.11887755244970322,-0.01877157762646675,0.12082817405462265,-0.012591849081218243,0.17554828524589539],[-0.04726243391633034,-0.015098242089152336,-0.14036688208580017,0.07333751022815704,0.07695575803518295,0.030010297894477844,0.14088134467601776,0.14037130773067474,-0.16637158393859863,0.05979735404253006,-0.09446244686841965,0.054744161665439606,0.08939114958047867,0.08525422215461731,0.024958109483122826,-0.15019521117210388,-0.04987502470612526,-0.12289279699325562,0.04552058130502701,0.19167476892471313,0.1798122227191925,0.025332383811473846,0.13880528509616852,0.1402168571949005,-0.03081701137125492,-0.03791380673646927,-0.030210379511117935,-0.18210916221141815,-0.04452533647418022,-0.15958689153194427,0.024106213822960854,-0.018341928720474243,-0.08027918636798859,-0.09429895132780075,-0.044063977897167206,0.052889324724674225,0.05363857001066208,0.04863632097840309,0.05364912003278732,0.012374483980238438,0.17448066174983978,0.06254671514034271,0.156953364610672,0.04834403097629547,-0.10275972634553909,-0.02231651172041893,-0.04969543591141701,-0.16327181458473206,-0.0411134697496891,0.17025664448738098,0.10783921927213669,0.08103740960359573,0.002262447727844119,-0.193448007106781,0.010132075287401676,-0.027962831780314445,-0.19567565619945526,0.07148436456918716,-0.014935691840946674,-0.07074401527643204,0.1400628536939621,0.15130998194217682,-0.07775270938873291,-0.004347714129835367],[-0.09317300468683243,0.07571685314178467,0.17440544068813324,0.05856919288635254,0.13981150090694427,0.0802326574921608,-0.09068287909030914,-0.0653981864452362,0.05778907239437103,0.07091324031352997,0.1474951207637787,0.006046196911484003,-0.12288139015436172,-0.18311597406864166,0.15408934652805328,-0.03594420105218887,-0.12858760356903076,0.19850648939609528,-0.041861072182655334,0.12321483343839645,-0.037726983428001404,0.013456493616104126,0.126402348279953,-0.1505414843559265,-0.02634551003575325,0.15007536113262177,-0.03494301438331604,-0.15490572154521942,0.14350765943527222,0.19585424661636353,0.07156302779912949,0.17699721455574036,-0.16174571216106415,-0.06345562636852264,-0.03961934149265289,-0.10901717841625214,0.17655232548713684,-0.0661509707570076,0.1259537935256958,0.012503435835242271,-0.1770440936088562,0.19657723605632782,0.09298311918973923,0.03892936185002327,0.04477166011929512,0.07541173696517944,-0.05968320742249489,0.05822674185037613,-0.15249013900756836,-0.1364055871963501,0.07802855968475342,0.141494482755661,-0.0032357173040509224,-0.03752337768673897,-0.18143963813781738,0.04920811578631401,0.009803012944757938,0.04707491397857666,0.007188873831182718,0.19371581077575684,-0.06552819162607193,0.15812160074710846,0.09567532688379288,0.062445975840091705],[0.012053518556058407,-0.11870817840099335,-0.14179523289203644,0.18987803161144257,0.00011274159624008462,-0.012358427047729492,0.0030158269219100475,-0.08286372572183609,0.011915220879018307,-0.10298734158277512,0.12869741022586823,-0.1784825325012207,0.09096162021160126,-0.11562979221343994,0.11722838133573532,-0.007831739261746407,-0.04317646846175194,-0.08693993836641312,0.09613020718097687,0.07346240431070328,-0.023774176836013794,0.19908414781093597,0.07658334821462631,0.08743471652269363,-0.08753661066293716,0.15887437760829926,-0.13402363657951355,-0.12077660858631134,0.054681334644556046,-0.007583145052194595,0.054413676261901855,0.03264747932553291,-0.0608675442636013,0.05950487405061722,0.041347380727529526,0.09332602471113205,0.12285193800926208,-0.03383101895451546,0.16870366036891937,0.13503949344158173,0.006376730278134346,0.03919757902622223,-0.17819198966026306,-0.12320396304130554,-0.18573254346847534,-0.14518241584300995,-0.05852668732404709,-0.13427594304084778,-0.03323978930711746,-0.1441480964422226,-0.12556932866573334,-0.19052481651306152,0.165345698595047,-0.13387534022331238,0.12468443065881729,-0.08392331004142761,-0.007710123434662819,-0.02753961645066738,0.16106022894382477,-0.058857399970293045,0.06828561425209045,0.18365129828453064,-0.05565137788653374,-0.02587219327688217],[0.17104476690292358,0.10203567892313004,-0.10469460487365723,0.12097283452749252,-0.0036691881250590086,0.15868040919303894,0.0033389138989150524,-0.19381946325302124,0.033579688519239426,0.09074102342128754,-0.10754260420799255,-0.03884582966566086,-0.01967538893222809,0.13275450468063354,-0.10000812262296677,-0.16199664771556854,0.1981213539838791,0.15072369575500488,0.13574418425559998,-0.11006507277488708,0.14920540153980255,-0.14725008606910706,-0.05825940892100334,-0.0969587191939354,-0.08608582615852356,0.11949509382247925,0.17306005954742432,0.06547410786151886,-0.1919136941432953,0.08647055923938751,0.19645601511001587,-0.06658686697483063,-0.07933413982391357,-0.1664033979177475,0.12433693557977676,-0.11696663498878479,0.1432397961616516,-0.04083535447716713,0.09587888419628143,0.0070885829627513885,-0.14232802391052246,0.16955862939357758,0.09441516548395157,0.014905206859111786,-0.0006517748697660863,-0.18293265998363495,-0.036942046135663986,0.1323830485343933,-0.0889100581407547,-0.023849397897720337,-0.1210865005850792,-0.05935968831181526,-0.05290955305099487,0.12946876883506775,-0.05672045424580574,0.12851636111736298,-0.12332097440958023,0.07736197859048843,0.0898512452840805,-0.07209742814302444,0.06780439615249634,-0.04284178465604782,-0.08297860622406006,-0.10068321228027344],[-0.1970110684633255,-0.04175632819533348,-0.1792985200881958,-0.009452530182898045,0.06658615171909332,0.06393206119537354,0.024060513824224472,0.1448659896850586,0.018745604902505875,-0.019165080040693283,0.04515468701720238,-0.07904168963432312,-0.1525196135044098,-0.033920563757419586,-0.05759262293577194,0.18371781706809998,0.10438067466020584,0.15569286048412323,0.023288186639547348,0.09210790693759918,-0.115465447306633,0.18453124165534973,-0.04905964806675911,-0.19502122700214386,-0.19720637798309326,0.10507382452487946,0.1251075267791748,0.11575416475534439,0.17753763496875763,-0.14857853949069977,-0.1568165421485901,-0.06047361344099045,0.053737737238407135,0.01408621110022068,-0.10120806097984314,0.0697827860713005,0.08152104169130325,-0.11552728712558746,0.15624386072158813,0.1865423321723938,0.08626197278499603,-0.16718752682209015,0.02214241959154606,0.14300724864006042,-0.10527780652046204,-0.1978929042816162,0.03303392603993416,-0.13579270243644714,0.023893652483820915,0.02865954488515854,0.009883956983685493,0.1002611592411995,0.186775341629982,-0.17074093222618103,0.08403302729129791,0.04720832034945488,0.16928619146347046,0.04265241324901581,-0.13948634266853333,0.1373572051525116,-0.05194159969687462,-0.07526441663503647,-0.19079364836215973,-0.1428498476743698],[-0.028428683057427406,0.08977503329515457,-0.13458757102489471,-0.0043169534765183926,-0.06315555423498154,0.012871057726442814,-0.09445745497941971,0.18019749224185944,0.06419167667627335,-0.09995188564062119,-0.038918133825063705,-0.06191108375787735,0.1374567449092865,-0.06199651584029198,-0.08968997746706009,-0.11475080996751785,-0.13924868404865265,0.1439782977104187,0.05382515490055084,0.036134619265794754,-0.18060678243637085,-0.03214164078235626,0.03502693027257919,0.10405164957046509,-0.007215776946395636,0.015571460127830505,0.06830421835184097,-0.17852506041526794,-0.024525506421923637,-0.15137937664985657,-0.14937056601047516,0.15417170524597168,-0.10525292158126831,0.07181251049041748,-0.15301163494586945,-0.17575551569461823,0.14577016234397888,-0.05415193736553192,-0.16034485399723053,-0.0678715705871582,0.02660769782960415,-0.10607586055994034,0.1298038214445114,0.0020303453784435987,-0.045683328062295914,-0.005008286330848932,-0.12070101499557495,-0.15956348180770874,-0.1792091280221939,-0.09807609021663666,-0.012411012314260006,0.151343435049057,-0.19991828501224518,-0.05572902038693428,-0.11995804309844971,-0.09337052702903748,-0.14829367399215698,-0.045832011848688126,0.04163779318332672,-0.16412973403930664,-0.19721576571464539,0.04640033468604088,-0.14906908571720123,-0.11951162666082382],[-0.04098108038306236,0.03600291162729263,-0.16429033875465393,0.14567066729068756,-0.06417905539274216,0.052743393927812576,0.19734220206737518,0.11018207669258118,0.07844831794500351,0.13985604047775269,-0.0362514965236187,0.12242142856121063,-0.03679443150758743,-0.16991449892520905,-0.09102576971054077,-0.14064553380012512,0.08053478598594666,0.07480183988809586,-0.05847648158669472,0.11116562783718109,-0.07499423623085022,-0.09790592640638351,0.02258937992155552,0.148795947432518,0.05564293637871742,-0.08908609300851822,0.029685568064451218,0.08718959987163544,-0.013118394650518894,0.0932319387793541,0.11426806449890137,-0.03259844332933426,-0.11055433750152588,0.11401966959238052,-0.1558305323123932,0.03563500568270683,0.18909399211406708,-0.04347476735711098,-0.1410548835992813,-0.025986233726143837,-0.13920938968658447,-0.14742138981819153,-0.03812649846076965,-0.031094495207071304,0.10902513563632965,0.19682089984416962,-0.09979946911334991,-0.16150976717472076,0.11162188649177551,-0.12158551812171936,0.07615505903959274,0.023049499839544296,0.06026509404182434,0.06176741421222687,-0.1954117715358734,-0.023440225049853325,0.07263559848070145,-0.1987656205892563,0.1376110315322876,0.03376847878098488,0.05119023099541664,-0.056342389434576035,-0.0917249321937561,-0.13962501287460327],[0.16113312542438507,-0.06628138571977615,-0.13960358500480652,-0.057314008474349976,-0.15767759084701538,0.19668930768966675,0.05739213153719902,-0.09885420650243759,-0.03139779344201088,0.034826599061489105,0.06091715767979622,-0.06351740658283234,-0.14052744209766388,-0.07029484957456589,0.1808328926563263,-0.035775575786828995,0.1832493096590042,-0.18740031123161316,-0.026275034993886948,-0.11818045377731323,-0.1463955193758011,-0.15293531119823456,-0.0005478255334310234,0.0848599374294281,0.18105413019657135,0.02352999709546566,-0.17110823094844818,-0.10081292688846588,-0.16582979261875153,0.00978973787277937,-0.18217718601226807,-0.19573910534381866,0.169497549533844,0.11422402411699295,0.07673666626214981,-0.009534644894301891,0.13674813508987427,-0.03878961503505707,0.10159218311309814,-0.1420791894197464,-0.1698533147573471,0.17430362105369568,-0.18063627183437347,0.01800357922911644,0.018055440858006477,-0.16592340171337128,-0.15845748782157898,-0.17063884437084198,-0.05741890147328377,0.185667023062706,-0.16795560717582703,0.04221288859844208,-0.06056118756532669,-0.12008395791053772,-0.17089426517486572,0.000297481135930866,0.18853618204593658,-0.11064509302377701,0.1979088932275772,0.1939866691827774,-0.13031981885433197,-0.09536916762590408,0.16022713482379913,-0.1275496631860733],[-0.03841296583414078,0.01685546711087227,-0.1423158198595047,-0.019047457724809647,0.13550779223442078,0.15974298119544983,0.08288095146417618,-0.024209540337324142,0.11400089412927628,-0.05572986975312233,0.037030983716249466,-0.06513582915067673,-0.18157048523426056,-0.17933161556720734,-0.06701195985078812,-0.012713948264718056,-0.13750919699668884,0.14182713627815247,0.028967496007680893,-0.16782820224761963,0.19520160555839539,-0.11981025338172913,-0.10021281242370605,0.00541518023237586,-0.18438225984573364,0.1664869487285614,-0.08386895060539246,-0.041023168712854385,0.19644330441951752,0.16890938580036163,0.19863180816173553,-0.08976414799690247,-0.12209725379943848,-0.1757500022649765,0.030917057767510414,0.05075789615511894,-0.15826500952243805,-0.10417592525482178,-0.13749289512634277,-0.04701879248023033,0.1869492381811142,-0.13773728907108307,-0.018314950168132782,0.0806637704372406,0.1691179871559143,0.1855018436908722,0.020480375736951828,-0.03699874505400658,0.010186023078858852,-0.18204990029335022,0.061151131987571716,0.039751823991537094,0.0034606331028044224,-0.008601409383118153,0.14827051758766174,0.15500041842460632,0.0021653526928275824,-0.16744612157344818,0.1435890793800354,-0.18835154175758362,0.07301165908575058,-0.14442484080791473,0.19530074298381805,0.06831638514995575],[-0.14113108813762665,-0.08815475553274155,-0.09310717135667801,-0.044904403388500214,-0.17449496686458588,0.09536021947860718,-0.18788625299930573,-0.10971824824810028,-0.10717806965112686,0.08680256456136703,0.049321845173835754,-0.015597946010529995,0.15051379799842834,0.04910173639655113,-0.07079929113388062,-0.13802480697631836,0.16950801014900208,-0.12798066437244415,0.18982058763504028,0.16955877840518951,-0.011891821399331093,0.09850025922060013,-0.022859206423163414,0.19644814729690552,0.18143031001091003,-0.036432962864637375,-0.18984681367874146,0.18502023816108704,0.06632725149393082,0.09884066134691238,0.1985740214586258,-0.09366178512573242,0.03290083259344101,0.00449374271556735,0.13297981023788452,-0.03886917978525162,0.0953514575958252,-0.14157919585704803,0.06075402349233627,-0.05855861306190491,-0.054407425224781036,-0.0333426259458065,0.17618869245052338,-0.17042239010334015,-0.1880151331424713,-0.13227079808712006,-0.04991234466433525,-0.0654260590672493,-0.0942438393831253,0.08103826642036438,0.03418976813554764,0.04644883796572685,0.020916534587740898,0.017544155940413475,0.13527144491672516,0.051116228103637695,-0.04027723893523216,0.1346055567264557,-0.012986289337277412,0.0216863714158535,0.12750568985939026,0.1368853896856308,0.01696012169122696,-0.07224497199058533],[-0.08593299239873886,-0.13347385823726654,-0.05737289413809776,-0.07982347905635834,-0.09775245934724808,-0.07288101315498352,0.008567026816308498,-0.019456975162029266,-0.01566469669342041,0.1619560718536377,-0.09320235997438431,0.08712020516395569,0.18890853226184845,-0.02570447325706482,0.13747116923332214,-0.13162095844745636,0.16530080139636993,0.007781947962939739,0.1955571472644806,-0.13644292950630188,-0.09702064841985703,-0.1938101053237915,0.14314693212509155,0.013937011361122131,-0.0011147893965244293,0.07943149656057358,0.19634900987148285,-0.03675298020243645,0.08412151783704758,-0.06507198512554169,-0.13691984117031097,-0.18343590199947357,-0.18542154133319855,-0.06357958167791367,0.15848387777805328,-0.0314827524125576,0.09562292695045471,-0.17114068567752838,0.18775182962417603,-0.19698791205883026,-0.11516090482473373,-0.10594773292541504,0.11826609075069427,-0.10224257409572601,-0.13422976434230804,-0.06935428082942963,0.06723231077194214,0.18105998635292053,-0.07491254806518555,0.10365492850542068,0.184993714094162,-0.11758923530578613,-0.0578317828476429,0.03200941160321236,-0.1049187183380127,-0.16413532197475433,-0.16495178639888763,0.028615597635507584,-0.10272780805826187,-0.09872236847877502,0.14036491513252258,-0.07741575688123703,0.11344010382890701,-0.0015872493386268616],[0.05479012057185173,-0.05173380300402641,0.032262057065963745,-0.02225557714700699,-0.1638496369123459,-0.11889465898275375,-0.08663108944892883,-0.0198590736836195,0.1486356258392334,0.1730867475271225,-0.1481671780347824,0.009791292250156403,0.05567541345953941,0.06920130550861359,0.1922447234392166,0.06145195662975311,0.10837734490633011,-0.15250003337860107,0.07162625342607498,0.05211615934967995,-0.07285173237323761,0.11099492013454437,-0.036642886698246,-0.05751557648181915,0.10651063919067383,0.18827030062675476,0.19920113682746887,0.04622719809412956,0.1842499077320099,0.14431364834308624,-0.04423569142818451,0.016291486099362373,-0.12582311034202576,0.10177121311426163,-0.136625736951828,0.030262349173426628,-0.13914376497268677,-0.12919622659683228,0.13698071241378784,0.06719428300857544,-0.16083239018917084,-0.1181715726852417,0.013625366613268852,-0.09820399433374405,0.15741516649723053,-0.1677725464105606,-0.015005468390882015,0.10671719163656235,-0.17779085040092468,0.16479316353797913,0.15184740722179413,0.18347430229187012,0.16531744599342346,-0.11962465196847916,-0.07726766914129257,-0.017496250569820404,-0.09128992259502411,-0.10484719276428223,-0.006338929757475853,-0.11617610603570938,0.028084557503461838,-0.0013836929574608803,-0.12959280610084534,0.046138372272253036],[-0.1349293440580368,-0.17771664261817932,-0.17084316909313202,0.05334218591451645,0.15285974740982056,0.040736857801675797,0.0016052236314862967,0.14699676632881165,-0.015410510823130608,-0.07830033451318741,0.10144996643066406,0.05380502715706825,-0.12713554501533508,-0.14928609132766724,0.08237050473690033,0.1003127247095108,-0.18373596668243408,0.19995933771133423,0.08622399717569351,0.16377651691436768,0.04149378463625908,0.06130208075046539,-0.005392920691519976,0.17658163607120514,-0.07296519726514816,-0.1174028143286705,0.10023296624422073,-0.0914929062128067,-0.028186850249767303,0.1538626104593277,0.008522464893758297,0.14428386092185974,-0.1539286971092224,-0.01602093130350113,0.053814735263586044,-0.1293220967054367,-0.185354545712471,-0.09347684681415558,-0.1641727238893509,-0.027288950979709625,-0.1456533670425415,-0.034915439784526825,0.0751652717590332,0.05061686038970947,-0.07150377333164215,0.006513617467135191,-0.11412091553211212,-0.15845057368278503,-0.18345727026462555,-0.08656733483076096,0.11860764026641846,0.17316925525665283,0.18710845708847046,0.06907109171152115,-0.012966243550181389,-0.18697920441627502,0.020268723368644714,-0.009632492437958717,0.12940722703933716,-0.13158905506134033,0.17829227447509766,0.006011311896145344,-0.11141012609004974,-0.18952380120754242],[0.011893974617123604,0.031074240803718567,0.10504774004220963,-0.13826501369476318,0.06816217303276062,-0.04918737709522247,0.13772860169410706,0.05454092472791672,0.14178717136383057,-0.09699352830648422,-0.08057475835084915,-0.027804356068372726,-0.18867748975753784,0.17576368153095245,-0.09705082327127457,0.05504012480378151,0.05105162784457207,-0.16629238426685333,0.010216102935373783,0.17672111093997955,-0.0780898928642273,-0.004572784528136253,-0.19919618964195251,0.1718609631061554,-0.07507845759391785,-0.14439180493354797,-0.10409844666719437,0.05200289562344551,0.017653945833444595,0.11818379908800125,-0.1798471361398697,-0.16500206291675568,-0.03602421656250954,0.05638917535543442,0.06547462195158005,-0.14922203123569489,-0.0031308671459555626,0.06131701543927193,0.06070106104016304,0.08574537187814713,0.18082790076732635,-0.07149452716112137,0.004557282198220491,0.023010747507214546,0.17951655387878418,0.19876845180988312,0.18375487625598907,0.19828328490257263,0.036017972975969315,0.19479262828826904,0.08494672179222107,-0.08005046844482422,0.11371618509292603,-0.08458100259304047,-0.06946693360805511,0.009948187507689,0.1863892674446106,0.06211995333433151,0.012467233464121819,0.1587328314781189,0.1979064792394638,0.1979493498802185,-0.022648170590400696,-0.17185498774051666],[-0.055415619164705276,-0.1262054294347763,-0.04347223788499832,0.10707137733697891,-0.11242835223674774,0.11236397176980972,-0.18628402054309845,-0.06955930590629578,-0.18617947399616241,-0.13223154842853546,-0.08220241218805313,-0.060710418969392776,0.11946272104978561,0.15735866129398346,0.1702122539281845,0.05770052224397659,-0.11803338676691055,0.15945126116275787,-0.12865929305553436,-0.009073605760931969,0.034828316420316696,-0.031087851151823997,0.07188832014799118,0.17196036875247955,0.041828054934740067,-0.14491809904575348,0.02589922770857811,-0.1157151460647583,-0.007830625399947166,0.1639992594718933,0.021697431802749634,0.1442027986049652,0.05347103253006935,-0.06893704831600189,0.185807466506958,-0.15229202806949615,-0.02931210957467556,0.10258720815181732,0.0509616881608963,0.11322949826717377,-0.0998813584446907,0.13849946856498718,-0.014778045006096363,-0.06460342556238174,-0.03269747272133827,-0.16723661124706268,-0.030645176768302917,-0.1885918378829956,-0.13297103345394135,0.19501417875289917,-0.16695576906204224,-0.13803401589393616,-0.05625641718506813,0.18808171153068542,-0.11570074409246445,0.005549874622374773,-0.1542416661977768,-0.052552856504917145,-0.19081848859786987,0.16211876273155212,0.06679221242666245,-0.07912011444568634,0.13890129327774048,-0.1555635631084442],[-0.036497704684734344,0.049535270780324936,-0.0987170860171318,0.05481269210577011,0.06982051581144333,-0.19407634437084198,0.02848759852349758,0.16674387454986572,0.04884018376469612,-0.17188680171966553,-0.14819322526454926,-0.19061832129955292,-0.07565167546272278,0.011798705905675888,-0.11374454200267792,-0.19275610148906708,0.019552743062376976,0.11140715330839157,0.1573973000049591,-0.17971853911876678,-0.1350041925907135,0.06381633877754211,0.1897340565919876,0.10026533901691437,-0.0627615749835968,0.03127317503094673,0.14678135514259338,0.0001912016305141151,0.17655685544013977,-0.1584995537996292,-0.028638623654842377,-0.023128412663936615,0.18843825161457062,-0.09749937802553177,-0.08483395725488663,-0.04075010120868683,0.029413068667054176,0.12568655610084534,-0.008854235522449017,-0.09116311371326447,0.19564121961593628,-0.15505792200565338,-0.019513722509145737,-0.0953846350312233,0.1890604943037033,0.16490694880485535,0.18947219848632812,0.1253250539302826,0.17155303061008453,0.11065249145030975,-0.06345884501934052,-0.07601385563611984,-0.08335936814546585,0.17103485763072968,-0.043200694024562836,0.005855705123394728,-0.0411025770008564,0.10745544731616974,0.011805255897343159,-0.125479057431221,0.0728750228881836,-0.1569652259349823,0.144078329205513,0.012376797385513783],[0.1631994992494583,0.10164297372102737,0.1525915116071701,0.19013500213623047,0.09494603425264359,-0.07048949599266052,-0.15458670258522034,-0.01918734423816204,0.06620138883590698,-0.14145421981811523,0.13055913150310516,-0.14504733681678772,-0.1284509301185608,0.13594894111156464,0.02602979727089405,0.14150860905647278,0.16908997297286987,-0.09206259250640869,-0.1673102080821991,0.05560574308037758,-0.029786735773086548,-0.01957947015762329,-0.1613331288099289,-0.024301428347826004,0.051641929894685745,0.07389471679925919,-0.09335969388484955,0.14049702882766724,-0.15875303745269775,0.13276930153369904,0.0786077231168747,0.12139652669429779,-0.14082138240337372,-0.00019790946680586785,0.1959732323884964,-0.15670745074748993,-0.06795555353164673,-0.1817140430212021,0.013218347914516926,-0.003955364692956209,-0.012203953228890896,-0.18445158004760742,-0.16094572842121124,0.03962218761444092,0.1409449726343155,-0.1347356140613556,-0.1490437537431717,0.11735929548740387,-0.018377702683210373,-0.05246153473854065,0.07576172798871994,0.022648781538009644,-0.18565592169761658,-0.0415780134499073,0.035396479070186615,-0.13260173797607422,-0.17280055582523346,0.012151324190199375,0.17886215448379517,-0.19818131625652313,0.059787195175886154,-0.002705724211409688,-0.02706681750714779,0.08488448709249496],[0.170907124876976,0.06903261691331863,0.029790345579385757,0.04788973927497864,-0.014622426591813564,-0.18005819618701935,0.16093595325946808,0.0751509815454483,0.004977361299097538,-0.13571017980575562,0.16728149354457855,-0.15953278541564941,-0.008306811563670635,0.11026814579963684,0.12732021510601044,-0.09101703763008118,-0.13979026675224304,0.18058274686336517,0.1856498271226883,0.08466542512178421,0.1355314999818802,-0.007238573394715786,-0.023722082376480103,-0.12421568483114243,0.026289310306310654,0.18867599964141846,-0.059416331350803375,-0.1232595145702362,0.10485833138227463,0.013506864197552204,-0.1900305151939392,-0.03412218764424324,0.0808701142668724,0.0705590546131134,-0.16891512274742126,-0.1988687664270401,0.011547497473657131,-0.1864212304353714,0.006115295924246311,0.13174110651016235,0.03437908738851547,0.02186202071607113,0.02196677215397358,-0.07758487015962601,-0.012895883992314339,-0.07178042083978653,-0.02010367624461651,-0.13131475448608398,0.127933531999588,-0.07541348040103912,0.18591654300689697,0.08916358649730682,0.057068392634391785,0.05770977586507797,0.036242082715034485,0.09711582958698273,0.019457751885056496,-0.029926234856247902,-0.14654317498207092,0.05881356820464134,0.11954080313444138,0.15408313274383545,0.10738906264305115,0.15700462460517883],[0.025664839893579483,-0.1846279352903366,0.12482348829507828,-0.16055741906166077,-0.03374835476279259,0.07479676604270935,0.18450060486793518,-0.18383744359016418,0.12194186449050903,-0.06989457458257675,-0.03332662582397461,-0.02138269878923893,-0.009864931926131248,-0.08231738954782486,0.18292850255966187,-0.10958516597747803,-0.08137161284685135,0.1279178410768509,0.026613429188728333,-0.18185408413410187,-0.0073594627901911736,0.07869919389486313,0.1343187838792801,-0.025842569768428802,-0.08407526463270187,-0.07299401611089706,-0.03981058672070503,-0.09541132301092148,0.18357862532138824,-0.005777464248239994,-0.02962551638484001,0.13070867955684662,0.09582933038473129,0.062448158860206604,0.18223299086093903,-0.03373149782419205,0.0005222854670137167,0.1803806871175766,-0.006815956439822912,-0.10518776625394821,0.1541028767824173,0.15500685572624207,0.1300828903913498,-0.18135374784469604,-0.18429552018642426,-0.11332058161497116,-0.1255943775177002,0.18879251182079315,-0.14546799659729004,-0.18589721620082855,-0.19367703795433044,0.01389019563794136,0.13569098711013794,-0.11059940606355667,-0.1571640968322754,-0.02652786672115326,0.037773746997117996,-0.17984619736671448,0.04683389887213707,-0.08845172822475433,0.1364961713552475,-0.00881143007427454,-0.0942191630601883,0.1732717901468277]],"biases":[0.5064090490341187,0.2810610830783844,0.3777008652687073,0.2794731855392456,0.3208645284175873,0.10901804268360138,0.019065238535404205,0.12783443927764893,0.4123814105987549,0.33849990367889404,0.14331547915935516,0.5602577328681946,0.3649422228336334,0.2629680037498474,0.17451557517051697,0.22201460599899292,0.33266377449035645,0.5401174426078796,0.3288619816303253,0.29118889570236206,0.41875308752059937,0.4286899268627167,0.42782676219940186,0.5372539162635803,0.2425183802843094,0.2271026223897934,0.39721202850341797,0.49974194169044495,0.4275761842727661,0.3964713513851166,0.17444805800914764,0.3735032081604004]},{"weights":[[-0.11721223592758179,-0.14851275086402893,-0.12274613231420517,-0.3160993158817291,-0.1435878574848175,-0.19579102098941803,-0.2160787284374237,-0.21549978852272034,-0.04902717471122742,-0.1512962132692337,-0.011151864193379879,-0.1970648318529129,-0.3036397099494934,-0.2650206983089447,-0.13397200405597687,-0.2244577705860138,-0.07172057032585144,-0.11067140847444534,-0.3111931383609772,-0.027641495689749718,-0.35011327266693115,-0.12378951907157898,-0.014253352768719196,-0.1349794864654541,-0.23979806900024414,-0.23746292293071747,-0.15526039898395538,-0.11412131041288376,-0.35168078541755676,-0.17250250279903412,-0.08860637992620468,-0.04414227604866028],[-0.24892139434814453,-0.0012457073898985982,-0.15773332118988037,-0.12372787296772003,-0.26144304871559143,-0.011655214242637157,0.010430803522467613,-0.10935448110103607,-0.13446667790412903,-0.13705341517925262,-0.09807352721691132,-0.17151202261447906,-0.3260086178779602,-0.02532600797712803,-0.0034835203550755978,-0.04832984507083893,-0.357525497674942,-0.10872325301170349,-0.08896305412054062,-0.3491517901420593,-0.26490268111228943,-0.17801664769649506,-0.2646123468875885,-0.19692547619342804,-0.30312085151672363,-0.3366551697254181,-0.0853104218840599,-0.2971076965332031,-0.12223932892084122,-0.11239888519048691,0.007229414768517017,-0.2898101806640625],[-0.1850930154323578,-0.2381909340620041,-0.30531102418899536,-0.2294132113456726,-0.1127379983663559,-0.24428264796733856,-0.024407410994172096,0.032234154641628265,-0.1348719596862793,-0.3578222393989563,-0.17802788317203522,-0.03411819040775299,-0.10964817553758621,-0.03984203189611435,-0.012772063724696636,-0.03275870159268379,-0.003079794580116868,-0.32512998580932617,-0.17564688622951508,-0.05823527276515961,-0.08668074011802673,-0.21212872862815857,-0.12080388516187668,-0.2870866656303406,-0.030245700851082802,-0.2300134003162384,-0.051323212683200836,-0.35803478956222534,-0.23774851858615875,-0.07597685605287552,-0.22172561287879944,-0.17318139970302582],[-0.23989807069301605,-0.1027153804898262,-0.1741158366203308,-0.3333877921104431,-0.04228181391954422,-0.2798524498939514,0.02233046106994152,-0.05611216649413109,-0.05089223384857178,-0.1060996875166893,-0.3036240339279175,-0.1825530081987381,-0.1272682547569275,-0.2360748052597046,-0.27984124422073364,0.034759461879730225,-0.24845749139785767,-0.24754437804222107,-0.2189115732908249,-0.026505470275878906,-0.12432296574115753,-0.1578865796327591,-0.1943056881427765,-0.30489617586135864,-0.15512815117835999,0.056483421474695206,-0.30225011706352234,-0.10666802525520325,-0.10199272632598877,-0.013984455727040768,-0.10411510616540909,-0.29193830490112305],[-0.24078384041786194,-0.2456265240907669,-0.2263048142194748,-0.09322654455900192,-0.11054326593875885,-0.1856766790151596,-0.19089744985103607,-0.07351728528738022,-0.23070216178894043,-0.07464495301246643,0.010939640924334526,-0.07202669978141785,-0.24738359451293945,-0.30524271726608276,0.04344499483704567,-0.029346562922000885,-0.08264698088169098,-0.20511728525161743,-0.09262877702713013,-0.2908134162425995,-0.3132437765598297,-0.34914112091064453,-0.1205877810716629,0.016428466886281967,-0.14714442193508148,-0.30097147822380066,-0.3090326189994812,-0.002501443726941943,-0.15696847438812256,-0.3052985668182373,-0.0007292811060324311,-0.219493567943573],[-0.25056421756744385,0.038615915924310684,-0.12055636942386627,-0.26913145184516907,-0.01645902544260025,-0.16711126267910004,-0.3264036476612091,0.012787635438144207,-0.2545529901981354,-0.17492251098155975,-0.07166562229394913,-0.03861258178949356,-0.32748714089393616,-0.2642876207828522,-0.003888770006597042,-0.12582708895206451,-0.047057073563337326,0.01712512969970703,-0.21734896302223206,-0.17177440226078033,-0.32589223980903625,-0.05275426059961319,-0.07182721048593521,-0.1912492960691452,-0.1018761545419693,-0.33853551745414734,-0.10092578083276749,-0.36336857080459595,-0.3581659197807312,-0.16840501129627228,-0.251812219619751,-0.10164111852645874],[-0.029242869466543198,-0.2594240605831146,-0.02968188375234604,-0.1142001822590828,0.020023388788104057,-0.017163624987006187,-0.23168987035751343,-0.16699902713298798,-0.08120836317539215,-0.298662006855011,-0.09657096117734909,-0.20154263079166412,0.015356897376477718,-0.1381685435771942,-0.2844991087913513,-0.3385778069496155,-0.2213834971189499,-0.29887855052948,-0.23556996881961823,-0.2322026789188385,-0.04331262409687042,-0.14118757843971252,-0.020186772570014,-0.37368306517601013,-0.2345784604549408,-0.039407312870025635,-0.13713547587394714,-0.2005440890789032,-0.30459076166152954,-0.1103646531701088,-0.11195939034223557,-0.105241559445858],[-0.35137876868247986,-0.07684727758169174,0.005110291298478842,-0.2175915539264679,-0.32859697937965393,-0.05382484197616577,-0.2554634213447571,-0.27863994240760803,-0.19650457799434662,0.021908167749643326,-0.18563450872898102,-0.15264661610126495,-0.3191905915737152,-0.016235578805208206,0.02410977892577648,0.00829553883522749,-0.3388446569442749,-0.04998209327459335,-0.04214905574917793,-0.11041241884231567,-0.34276440739631653,-0.24247410893440247,-0.039119698107242584,-0.24527738988399506,-0.17883072793483734,-0.2974267899990082,-0.18976536393165588,-0.23366476595401764,-0.1897466480731964,-0.15508797764778137,-0.3056254982948303,-0.11863800883293152],[-0.17181681096553802,-0.02046074904501438,-0.2782023847103119,-0.04577741399407387,0.003305895486846566,-0.03441327065229416,0.0031422721222043037,-0.14338082075119019,-0.2835095524787903,-0.12940192222595215,-0.2319938987493515,-0.0592484287917614,-0.08141155540943146,-0.10877793282270432,-0.29465895891189575,-0.2299077957868576,-0.26629728078842163,-0.36495548486709595,-0.18433985114097595,-0.24210864305496216,-0.020528918132185936,-0.11989156156778336,-0.2464066743850708,-0.015024139545857906,-0.24602578580379486,-0.31796994805336,-0.24849364161491394,-0.15879806876182556,-0.12258180975914001,-0.33257684111595154,-0.24335527420043945,-0.10324431955814362],[-0.132462739944458,-0.2554924786090851,-0.29492419958114624,-0.31772661209106445,-0.3118182420730591,0.004849525634199381,-0.30391165614128113,-0.24871578812599182,0.004726268816739321,-0.1403457522392273,0.06645215302705765,-0.22417773306369781,-0.1691981852054596,-0.17629173398017883,-0.11387034505605698,0.04382163658738136,-0.25108253955841064,-0.15793846547603607,-0.04817097261548042,-0.27707430720329285,-0.20506449043750763,-0.29595115780830383,-0.2781344950199127,0.024844784289598465,-0.0677252858877182,0.05607401579618454,-0.11160720884799957,-0.21095819771289825,-0.2557169497013092,-0.12318107485771179,-0.12622371315956116,-0.2821079194545746],[-0.308072954416275,-0.10109534859657288,-0.1399831622838974,-0.3085823357105255,0.015422406606376171,-0.26512229442596436,0.011278900317847729,-0.34745222330093384,-0.1107548326253891,0.014192240312695503,-0.15484566986560822,-0.06325281411409378,0.03273967280983925,-0.008868657052516937,-0.3126383125782013,-0.3023622930049896,0.003500270191580057,-0.184500589966774,-0.2492484152317047,-0.10896414518356323,-0.33463287353515625,-0.11925528943538666,-0.3148490786552429,-0.3561011552810669,-0.22823752462863922,-0.016186676919460297,-0.08426890522241592,-0.3517512083053589,-0.08264557272195816,-0.09170158952474594,-0.22150328755378723,-0.09630028903484344],[-0.3488894999027252,-0.07050830125808716,-0.2664220631122589,-0.34977179765701294,-0.21258780360221863,-0.042230233550071716,-0.21205127239227295,-0.11379866302013397,-0.2924404442310333,-0.13450779020786285,-0.06831194460391998,-0.33869412541389465,-0.010671661235392094,-0.03981533274054527,-0.16249684989452362,-0.04602467268705368,-0.08625887334346771,-0.19815245270729065,-0.15482990443706512,-0.038258545100688934,0.007250714581459761,-0.09495207667350769,-0.14688561856746674,-0.14969201385974884,-0.2807713747024536,-0.17819082736968994,-0.29283320903778076,-0.044872041791677475,-0.023266980424523354,-0.3790944218635559,-0.2332972288131714,-0.23726823925971985],[-0.02201753295958042,-0.14222899079322815,-0.0729440227150917,-0.3030496835708618,-0.3154051899909973,0.038249485194683075,0.016236701980233192,-0.1562863141298294,-0.20069484412670135,-0.28149402141571045,-0.3358083963394165,-0.25991106033325195,-0.15237243473529816,-0.08371064811944962,-0.05651601776480675,-0.08124537020921707,-0.17149227857589722,-0.3783426880836487,-0.19305698573589325,-0.23382505774497986,-0.31944480538368225,0.02526888996362686,-0.368625283241272,-0.14515948295593262,0.007773185148835182,-0.30246567726135254,-0.005397206638008356,-0.23351943492889404,0.027764704078435898,-0.0840519443154335,-0.09730486571788788,-0.2992435395717621],[-0.14763794839382172,-0.18688513338565826,0.029611265286803246,-0.050412245094776154,-0.2888093590736389,-0.18384110927581787,-0.24640583992004395,-0.11683477461338043,-0.29783323407173157,-0.16511417925357819,-0.26563403010368347,-0.28682228922843933,-0.31860506534576416,-0.3258713483810425,-0.016014929860830307,-0.3068891763687134,-0.16331201791763306,0.01842547208070755,0.019065361469984055,-0.060956843197345734,-0.11176218092441559,-0.16626840829849243,-0.05955415964126587,-0.05808058753609657,-0.04766042158007622,-0.05894001945853233,-0.18151091039180756,-0.09002916514873505,-0.31122735142707825,-0.35694029927253723,-0.14892035722732544,-0.23169678449630737],[-0.22182141244411469,-0.1613137573003769,-0.27660053968429565,-0.16331537067890167,-0.18597833812236786,-0.0890762209892273,-0.11803051084280014,-0.07653095573186874,-0.1397610753774643,-0.2980539798736572,-0.3140517473220825,-0.17462147772312164,-0.2043522149324417,-0.19057534635066986,0.0064278338104486465,-0.13102689385414124,-0.0048561361618340015,-0.2944383919239044,-0.09198720008134842,-0.034477099776268005,-0.02925293892621994,-0.14380495250225067,-0.28250160813331604,-0.28950101137161255,0.040574681013822556,-0.26374873518943787,-0.3520205020904541,-0.14274141192436218,-0.14407587051391602,-0.2520690858364105,0.009624766185879707,-0.23950861394405365],[-0.1460176259279251,-0.3030830919742584,-0.28980082273483276,-0.31277018785476685,-0.17281149327754974,-0.026728374883532524,-0.303531676530838,-0.04340565949678421,-0.04907562583684921,-0.30668365955352783,-0.29358571767807007,-0.31028324365615845,-0.00225790124386549,-0.05371197685599327,-0.2046043574810028,-0.2705290913581848,-0.17609193921089172,-0.07136078178882599,-0.06611669808626175,-0.047238100320100784,-0.36467429995536804,-0.18154506385326385,-0.2415538877248764,-0.09559746086597443,-0.08668918907642365,0.017469529062509537,-0.157943993806839,-0.025704944506287575,-0.1871715635061264,-0.2268020510673523,-0.10603367537260056,-0.289287805557251],[-0.3745170533657074,-0.07177363336086273,-0.2531358599662781,-0.10417889058589935,-0.2933998703956604,-0.056760117411613464,0.045560602098703384,-0.2913932800292969,-0.20673778653144836,-0.28795352578163147,-0.17160212993621826,0.010549375787377357,-0.17056860029697418,-0.02828328125178814,0.03570077195763588,-0.18273010849952698,-0.3137029707431793,-0.14796116948127747,-0.054057009518146515,-0.16002143919467926,-0.21746623516082764,-0.3195434510707855,-0.3408999443054199,-0.11486808210611343,-0.14264461398124695,-0.25840306282043457,-0.0904887467622757,-0.08477289229631424,-0.05717863887548447,-0.01566827856004238,-0.33586040139198303,-0.061760466545820236],[-0.1518213003873825,-0.11423996835947037,-0.060900457203388214,-0.06646820902824402,-0.34907904267311096,-0.1935887187719345,0.029701579362154007,-0.16810281574726105,-0.3033096492290497,-0.0007320319418795407,-0.11355036497116089,-0.2893329858779907,-0.06852792948484421,-0.28256964683532715,-0.32136309146881104,0.002995605580508709,-0.2151937037706375,-0.2217269092798233,-0.2430296391248703,-0.0186298917979002,-0.15309487283229828,-0.02733653597533703,-0.22180430591106415,-0.023556923493742943,-0.3018572926521301,-0.21537746489048004,-0.20871277153491974,-0.27143794298171997,-0.1765003502368927,-0.16915404796600342,-0.21140891313552856,-0.3127034902572632],[-0.04512704163789749,-0.0009584204526618123,-0.21227595210075378,-0.0009719803929328918,-0.3340822458267212,-0.31979599595069885,-0.2456377148628235,-0.023658420890569687,-0.04581385478377342,-0.1354699283838272,-0.10584938526153564,-0.09689958393573761,0.005981225986033678,0.0287032350897789,0.02290753275156021,-0.12228237837553024,-0.3424641489982605,-0.18501031398773193,-0.15895511209964752,-0.28468576073646545,-0.3455672860145569,0.0009324109996668994,-0.2813749611377716,-0.050673674792051315,-0.3270843029022217,-0.32930195331573486,-0.10970399528741837,-0.34356334805488586,-0.3293127119541168,-0.37416163086891174,-0.3294154703617096,-0.06054219231009483],[-0.09796203672885895,-0.16453497111797333,-0.14545953273773193,-0.26296818256378174,-0.13957704603672028,-0.19425112009048462,-0.14958985149860382,-0.03659660369157791,-0.26058363914489746,-0.12450496107339859,-0.17463310062885284,-0.07516784965991974,0.03820640593767166,-0.19644945859909058,-0.1711457371711731,-0.2641614079475403,-0.14904733002185822,-0.2710475027561188,-0.2022470235824585,-0.2725621461868286,-0.10986903309822083,-0.11006549000740051,-0.2807362973690033,-0.2249673306941986,0.08462507277727127,-0.22073204815387726,-0.21743808686733246,-0.136825829744339,-0.2457498162984848,-0.2660202980041504,-0.26950132846832275,-0.2811891436576843],[-0.18915073573589325,-0.2890948951244354,-0.0019264006987214088,-0.04928760975599289,-0.12166865170001984,-0.16629178822040558,-0.11816861480474472,-0.054030418395996094,0.00313163292594254,-0.32115647196769714,-0.27888816595077515,-0.11716785281896591,0.04569155350327492,-0.21919995546340942,-0.28551143407821655,-0.17917637526988983,-0.06917830556631088,-0.27671927213668823,-0.2909185290336609,-0.1964629888534546,-0.30677923560142517,-0.2921677231788635,-0.2662845253944397,0.0551404170691967,-0.29269465804100037,-0.1730033904314041,-0.18184451758861542,-0.24000011384487152,-0.018518736585974693,0.04274861142039299,-0.26160386204719543,-0.23358575999736786],[-0.28217336535453796,-0.034163616597652435,-0.07051824033260345,-0.2452392876148224,0.03127079829573631,-0.011938168667256832,0.014209207147359848,-0.024544868618249893,-0.12307703495025635,-0.026639459654688835,-0.30997759103775024,-0.3617793321609497,-0.1679142713546753,-0.28817835450172424,-0.16764667630195618,-0.04172300919890404,-0.05926878750324249,-0.3574056029319763,-0.3084450960159302,0.014797279611229897,-0.24474525451660156,-0.12450696527957916,-0.11626432836055756,-0.1405094861984253,-0.33200469613075256,-0.30904853343963623,-0.03671637922525406,-0.17327170073986053,-0.22350279986858368,-0.10694733262062073,0.027553120627999306,-0.20364779233932495],[-0.052781954407691956,-0.1183452308177948,-0.24422799050807953,-0.2319025844335556,-0.14120760560035706,-0.14492857456207275,-0.28827324509620667,-0.24973279237747192,-0.27846890687942505,-0.2032327800989151,-0.2688906788825989,-0.3314974308013916,-0.11462465673685074,0.06265188753604889,-0.2015620321035385,-0.13411012291908264,-0.12691546976566315,-0.22329629957675934,-0.3077969551086426,-0.044352177530527115,-0.12936457991600037,-0.2233341634273529,-0.13160331547260284,-0.06092192605137825,-0.038984265178442,-0.08659319579601288,-0.27696892619132996,-0.27503103017807007,-0.143166184425354,-0.247970312833786,-0.1869121491909027,-0.08043935894966125],[-0.11670590937137604,-0.1329421103000641,-0.052361004054546356,-0.30763912200927734,-0.16495729982852936,-0.13837172091007233,0.055796071887016296,0.06078694388270378,-0.012931490316987038,-0.014349974691867828,-0.30960580706596375,-0.20940345525741577,0.010133142583072186,-0.16156770288944244,-0.22477202117443085,-0.2491881400346756,-0.10743390768766403,-0.14482071995735168,-0.23284755647182465,-0.33036696910858154,-0.3293136954307556,-0.20133383572101593,-0.13070203363895416,-0.11244545131921768,-0.12514172494411469,-0.2309647649526596,-0.042836468666791916,-0.2613120377063751,-0.1009628102183342,-0.2575187385082245,-0.007408988196402788,-0.3502964675426483],[-0.36366161704063416,-0.10025341063737869,-0.12576664984226227,0.01175621710717678,0.02326052077114582,-0.2652006447315216,-0.13364039361476898,-0.3451410233974457,-0.04838180169463158,-0.15877710282802582,-0.223277285695076,-0.1368069350719452,-0.27362000942230225,-0.3051387667655945,-0.17995716631412506,0.027657844126224518,-0.33860936760902405,-0.36696290969848633,0.01678203046321869,-0.11401456594467163,-0.21190279722213745,-0.040827397257089615,-0.008634927682578564,-0.3145201504230499,-0.2917327582836151,-0.0028674439527094364,-0.3465685248374939,-0.07025576382875443,-0.335626482963562,-0.011587764136493206,-0.07786383479833603,-0.14473390579223633],[-0.3131774663925171,-0.26772475242614746,-0.17422164976596832,-0.07703635841608047,-0.06443250179290771,-0.080270916223526,-0.3099970817565918,-0.13470135629177094,-0.3366880714893341,-0.24737548828125,-0.024811111390590668,-0.02122665010392666,-0.24859154224395752,-0.17883098125457764,-0.21629764139652252,-0.30714747309684753,0.023721737787127495,-0.08448205888271332,-0.048174306750297546,-0.280707985162735,0.028785033151507378,-0.1317131072282791,-0.15204359591007233,-0.23575519025325775,0.03358762711286545,-0.04843404144048691,-0.30028167366981506,-0.14987990260124207,-0.03042476810514927,-0.2690890431404114,-0.01900571584701538,-0.2503329813480377],[-0.3481462895870209,-0.09461355209350586,-0.19418606162071228,-0.16506026685237885,-0.3246939182281494,-0.08748414367437363,-0.281305730342865,-0.08632524311542511,-0.39862629771232605,-0.06521766632795334,-0.005631971638649702,-0.03063189424574375,-0.16618438065052032,-0.24197319149971008,-0.06172175332903862,-0.06099283695220947,-0.21658046543598175,-0.04000823572278023,-0.11210218816995621,-0.37428367137908936,-0.015583994798362255,-0.07924579083919525,-0.18016773462295532,-0.07201763987541199,-0.17317649722099304,-0.37736573815345764,-0.3198133707046509,-0.24110247194766998,-0.09871910512447357,-0.05035000294446945,-0.19043517112731934,-0.12784089148044586],[-0.2769850492477417,-0.16352032124996185,-0.025555644184350967,-0.10590539872646332,-0.22774025797843933,-0.31769996881484985,-0.02644342929124832,0.051952458918094635,-0.33090367913246155,-0.12243681401014328,-0.19408315420150757,-0.3186248242855072,0.007757700979709625,-0.0541534386575222,-0.06076967343688011,-0.29762378334999084,-0.24380776286125183,-0.32628321647644043,-0.26836711168289185,-0.0570516362786293,-0.0712287649512291,-0.32204723358154297,-0.2910912334918976,-0.2355836182832718,-0.3449785113334656,-0.09914709627628326,-0.1255744844675064,-0.12832894921302795,-0.15121538937091827,-0.049372147768735886,-0.09238279610872269,-0.0819537490606308],[-0.1795680671930313,-0.11694148182868958,-0.2819862365722656,-0.07423145323991776,-0.25916197896003723,-0.1843172013759613,-0.2207137942314148,0.026988666504621506,-0.28987810015678406,-0.3539319932460785,-0.18124635517597198,0.002565924543887377,-0.004679212346673012,-0.14320291578769684,-0.15758737921714783,-0.02502766065299511,-0.17585496604442596,-0.15522944927215576,-0.006748131010681391,-0.2799568176269531,-0.19363728165626526,-0.32977062463760376,0.020539892837405205,-0.20396503806114197,-0.2853837013244629,-0.21472954750061035,0.029743362218141556,-0.2646585702896118,-0.12690532207489014,-0.0143560990691185,-0.06729648262262344,-0.3172423839569092],[-0.07766657322645187,-0.2378469854593277,-0.1535494327545166,-0.17014852166175842,-0.09481754899024963,-0.037355732172727585,-0.14038504660129547,-0.23852737247943878,-0.1795305460691452,-0.0006091592949815094,-0.3049846589565277,-0.3121212124824524,-0.11371976137161255,-0.04769713059067726,0.013184303417801857,-0.2722853124141693,-0.3791150450706482,-0.07962477207183838,-0.04033032804727554,-0.33098146319389343,-0.30239686369895935,-0.2795991897583008,-0.061241090297698975,-0.3603428900241852,-0.14661449193954468,-0.18374036252498627,-0.16544687747955322,-0.22532546520233154,-0.3526495099067688,-0.02422623708844185,-0.04761796444654465,-0.0743919312953949],[-0.2298157662153244,-0.20497870445251465,-0.1680072396993637,-0.21138188242912292,-0.2860219180583954,-0.27416539192199707,-0.1585179567337036,-0.031186923384666443,-0.011291295289993286,-0.03151588514447212,-0.13439401984214783,-0.10208367556333542,-0.13460293412208557,0.0423872247338295,-0.15409962832927704,-0.29901885986328125,0.007940150797367096,-0.25019967555999756,-0.1664520800113678,-0.09807603806257248,-0.06078384816646576,-0.10765904933214188,-0.2885337471961975,-0.2241203784942627,-0.2379273772239685,-0.11649730056524277,-0.27696043252944946,-0.09329035878181458,-0.21973073482513428,-0.013651630841195583,-0.27744168043136597,-0.3018835484981537],[-0.008279576897621155,-0.19597499072551727,-0.2868703305721283,-0.14356376230716705,-0.36931490898132324,-0.30961814522743225,-0.018209416419267654,-0.18099139630794525,-0.33773595094680786,-0.3586471676826477,-0.05679318308830261,-0.006547233555465937,-0.012692696414887905,-0.277957558631897,-0.22803549468517303,-0.02877458930015564,-0.04593098163604736,-0.2028353363275528,-0.18660278618335724,-0.24914613366127014,-0.16199462115764618,-0.23362210392951965,-0.23966385424137115,-0.31679508090019226,-0.1497645527124405,-0.07721079140901566,-0.01676882989704609,-0.14578701555728912,-0.16053126752376556,-0.035514362156391144,-0.2749819755554199,0.021269336342811584],[-0.045381415635347366,-0.3315443992614746,-0.0421295091509819,-0.05867403373122215,-0.15521681308746338,-0.13529707491397858,-0.21962673962116241,-0.03613986074924469,-0.2572910487651825,-0.26839983463287354,0.002223237184807658,-0.3299326002597809,-0.3599354922771454,-0.06681999564170837,-0.06229030713438988,-0.040725044906139374,-0.0014974443474784493,0.004185960628092289,-0.08544280380010605,-0.26384884119033813,-0.37269166111946106,-0.14072290062904358,-0.30025574564933777,-0.2686305344104767,-0.30707481503486633,-0.3516699969768524,-0.18756693601608276,0.005524679087102413,-0.040197718888521194,-0.10359574854373932,-0.305917888879776,0.016673458740115166],[-0.23830747604370117,-0.19274848699569702,-0.04763256013393402,-0.15406279265880585,0.0013380839955061674,-0.3666217625141144,0.03688282519578934,-0.16967470943927765,-0.07333708554506302,-0.16441740095615387,-0.10582220554351807,-0.3672561049461365,-0.22250467538833618,-0.21831059455871582,-0.15425652265548706,-0.362643301486969,-0.06371747702360153,-0.11267202347517014,-0.08671891689300537,-0.36397406458854675,0.0038789052050560713,0.005380275659263134,-0.0676577240228653,-0.24560648202896118,-0.028304822742938995,-0.28000691533088684,-0.290633887052536,-0.20210331678390503,-0.2839677035808563,-0.05598439648747444,-0.1515275239944458,-0.09223037958145142],[-0.1650918424129486,0.018431691452860832,-0.26305127143859863,-0.3447045385837555,-0.1051378920674324,-0.15347489714622498,-0.31487980484962463,-0.27623018622398376,-0.19995781779289246,-0.3269585072994232,-0.1926993429660797,-0.2577414810657501,-0.06212586164474487,-0.21393226087093353,-0.17653685808181763,-0.23825247585773468,-0.23727726936340332,-0.10782814770936966,0.006991031114012003,-0.03425559401512146,-0.24681012332439423,0.003082499373704195,-0.0671074390411377,-0.1301845908164978,-0.008784793317317963,-0.31094714999198914,-0.02907174825668335,-0.2710086405277252,-0.31628382205963135,0.01287780050188303,-0.16702403128147125,-0.2550012171268463],[-0.08116169273853302,-0.008742527104914188,0.01687212474644184,-0.0035138342063874006,-0.03157132491469383,-0.190927192568779,-0.13415652513504028,-0.03918563947081566,-0.017865648493170738,0.0411321260035038,0.04381219670176506,-0.2367008477449417,-0.18151132762432098,-0.2300594300031662,-0.0664108470082283,-0.15761245787143707,-0.11604180186986923,-0.32584047317504883,-0.2999282479286194,-0.21081553399562836,-0.2262556105852127,-0.19216252863407135,-0.04173634201288223,-0.2955387830734253,-0.31409376859664917,-0.08613140136003494,-0.27130618691444397,-0.2764384150505066,-0.2712394595146179,-0.31266728043556213,-0.18203158676624298,-0.2930271029472351],[-0.27779531478881836,-0.3140268623828888,0.01446050126105547,-0.0627872422337532,-0.15616382658481598,-0.04385406896471977,-0.053133606910705566,-0.07017921656370163,-0.30398595333099365,-0.26122793555259705,-0.03299024701118469,-0.31828823685646057,-0.12803123891353607,-0.2614612281322479,-0.3399082124233246,0.002208341844379902,-0.13071492314338684,-0.282794326543808,-0.09670004993677139,-0.14687402546405792,-0.17791645228862762,-0.16226506233215332,0.02443205937743187,-0.2473210096359253,-0.1541672796010971,-0.020550914108753204,-0.34645676612854004,-0.22604316473007202,-0.3015977740287781,-0.16791658103466034,-0.03796621784567833,-0.07163437455892563],[-0.329039067029953,-0.27404168248176575,-0.02986317127943039,-0.32888662815093994,0.008057660423219204,-0.00712263397872448,-0.2725561559200287,-0.05787861719727516,-0.06940106302499771,-0.33046507835388184,-0.3029036819934845,-0.29876160621643066,0.007540685124695301,-0.2447068989276886,-0.16401506960391998,-0.3540906310081482,-0.07152703404426575,-0.09730195999145508,0.005727575160562992,-0.18328987061977386,-0.1317521035671234,-0.020324168726801872,-0.10554133355617523,-0.36658409237861633,-0.1463073492050171,-0.09859279543161392,-0.1695033311843872,-0.2979053854942322,-0.20443682372570038,-0.15067058801651,-0.002338883001357317,-0.2719506025314331],[-0.3550507724285126,-0.2356681227684021,-0.08109897375106812,-0.1666296422481537,-0.11591792106628418,-0.31430497765541077,-0.11483325064182281,-0.2559431791305542,-0.22150757908821106,0.024598421528935432,-0.08957819640636444,0.0278429314494133,-0.2854207158088684,-0.000993650290183723,-0.08010859787464142,0.03456703945994377,-0.16849233210086823,-0.31173017621040344,0.030530517920851707,-0.25571495294570923,-0.23995886743068695,-0.019442111253738403,-0.26263922452926636,-0.3361687660217285,-0.2414604127407074,-0.06936642527580261,-0.24995972216129303,0.009041795507073402,-0.24590173363685608,-0.03746817260980606,-0.10162821412086487,-0.20950524508953094],[-0.04768642410635948,-0.32567575573921204,-0.2688480019569397,-0.1407705396413803,0.05758586525917053,-0.14009572565555573,0.026865214109420776,-0.14869718253612518,0.0009332124027423561,-0.14909295737743378,-0.16776037216186523,-0.22851455211639404,-0.2606864869594574,-0.28648701310157776,-0.023823736235499382,-0.2519765794277191,0.0026101062539964914,0.004189126193523407,-0.28819161653518677,-0.23057329654693604,-0.23841488361358643,-0.3331913352012634,-0.3306617736816406,-0.3134138286113739,-0.25582730770111084,-0.020864788442850113,-0.021423563361167908,-0.04943076893687248,-0.056715112179517746,-0.34021851420402527,-0.187655970454216,-0.29162541031837463],[-0.053219906985759735,-0.31682634353637695,-0.34261849522590637,-0.2861894965171814,-0.0073012919165194035,-0.044727619737386703,0.030497455969452858,-0.36696046590805054,-0.2138620764017105,-0.1283591240644455,0.020430227741599083,-0.3852219581604004,-0.050141591578722,-0.12257014214992523,-0.30335140228271484,-0.16549408435821533,-0.17288310825824738,-0.22914868593215942,-0.04632212966680527,-0.019296424463391304,-0.18088720738887787,-0.04399269446730614,-0.219582200050354,-0.153799906373024,-0.0869109109044075,-0.10849220305681229,-0.25685712695121765,-0.162404865026474,-0.10250720381736755,-0.03706048056483269,-0.3027172088623047,-0.387561172246933],[0.003367002122104168,-0.33748430013656616,-0.06513586640357971,0.018450520932674408,-0.26804298162460327,0.0017649201909080148,-0.19846898317337036,-0.09288375824689865,-0.033409833908081055,-0.03323814645409584,-0.03682251274585724,-0.29359912872314453,-0.2679791748523712,-0.26508113741874695,-0.3318215012550354,-0.32681089639663696,-0.3316865563392639,-0.09822795540094376,-0.17853213846683502,-0.05140291154384613,-0.3001805543899536,-0.24648676812648773,0.012940716929733753,-0.295736700296402,-0.21591344475746155,-0.2504833936691284,0.04501357302069664,0.03608369082212448,-0.13179141283035278,-0.17945724725723267,-0.16302193701267242,-0.09658590704202652],[-0.08251374959945679,-0.05724500119686127,-0.03192120045423508,0.023839037865400314,-0.3143182396888733,0.012176668271422386,-0.027738220989704132,-0.24809706211090088,-0.12357520312070847,-0.13805536925792694,-0.1743796169757843,-0.06586401164531708,-0.0007646802114322782,-0.1564798504114151,-0.1738685518503189,-0.1844509243965149,-0.051147133111953735,-0.20995302498340607,-0.10758013278245926,-0.18050751090049744,-0.3408691883087158,-0.1603037416934967,-0.22903940081596375,-0.2547430396080017,-0.28183603286743164,-0.04248286783695221,-0.22726218402385712,-0.3791031539440155,-0.1298740953207016,-0.2730279266834259,-0.10871805250644684,-0.21782495081424713],[-0.31667932868003845,0.029449962079524994,-0.16482964158058167,-0.23165740072727203,-0.30657652020454407,-0.004377181176096201,0.014217427931725979,-0.29247403144836426,-0.3431093096733093,-0.029477089643478394,-0.09033673256635666,-0.34488239884376526,-0.289703369140625,0.045051027089357376,-0.03405182808637619,-0.14108552038669586,-0.15350516140460968,-0.07794218510389328,-0.2682535946369171,-0.2901046574115753,-0.10899106413125992,-0.10267225652933121,-0.3046765625476837,-0.09945409744977951,0.02095963805913925,-0.022376857697963715,-0.22496847808361053,-0.30178025364875793,-0.2924269735813141,-0.2938168942928314,-0.05192054063081741,0.036653224378824234],[-0.34530696272850037,-0.23511283099651337,-0.24867932498455048,-0.2032237946987152,-0.29494401812553406,-0.10104188323020935,-0.17925336956977844,-0.07761160284280777,0.028942683711647987,-0.2807393968105316,-0.04210301861166954,-0.10864994674921036,-0.30475687980651855,-0.265052855014801,-0.24774780869483948,-0.19960080087184906,-0.11827931553125381,-0.0770745649933815,-0.3064703643321991,-0.0671902671456337,-0.1467391699552536,-0.12808023393154144,-0.22249522805213928,-0.1087987944483757,0.04750900715589523,-0.24933446943759918,-0.25742876529693604,-0.23343762755393982,0.040458474308252335,-0.061913132667541504,-0.2257869839668274,0.048096396028995514],[-0.17713628709316254,-0.033400435000658035,-0.36264535784721375,-0.27837496995925903,-0.022461755201220512,-0.3181673586368561,-0.06484363228082657,-0.24575500190258026,-0.17051643133163452,-0.012547196820378304,-0.2961699664592743,-0.33148688077926636,-0.26428550481796265,0.03464356064796448,-0.2994763255119324,-0.09807119518518448,-0.027126573026180267,-0.09432436525821686,-0.24029774963855743,-0.23713921010494232,-0.10158330947160721,-0.2574377954006195,-0.07555437833070755,-0.2003779411315918,-0.3516867458820343,-0.12549816071987152,-0.13242259621620178,-0.18952710926532745,-0.28947556018829346,-0.20876386761665344,-0.02856011874973774,-0.006078608334064484],[-0.2999388873577118,-0.2229759395122528,-0.03146625682711601,-0.020143579691648483,-0.3405188024044037,0.02710900269448757,-0.2134399563074112,-0.04537155479192734,-0.34207773208618164,0.012716937810182571,-0.178934708237648,-0.25452059507369995,-0.02180469036102295,-0.14010393619537354,-0.3330627381801605,-0.2254640758037567,-0.06831933557987213,-0.21712061762809753,-0.17891110479831696,-0.2595311999320984,0.007132723927497864,-0.29332083463668823,-0.21903054416179657,-0.04801497980952263,-0.20409293472766876,0.013398938812315464,0.024674326181411743,-0.375871479511261,-0.15700964629650116,0.008421337231993675,-0.2176486998796463,0.001688401447609067],[-0.035014912486076355,-0.10549919307231903,-0.35477331280708313,-0.012227351777255535,0.021352147683501244,-0.2952602207660675,-0.027159281075000763,0.034276943653821945,-0.20285139977931976,-0.2457474321126938,-0.04533824697136879,-0.37286853790283203,-0.3333204388618469,-0.02072274684906006,-0.33011162281036377,-0.0034381726291030645,-0.04172266274690628,-0.2619205713272095,-0.1785808950662613,-0.20849904417991638,-0.010449067689478397,-0.3199213147163391,-0.21687708795070648,-0.312570720911026,-0.2208249419927597,-0.045958470553159714,0.025634652003645897,-0.07800604403018951,-0.06240205094218254,-0.3148447275161743,-0.27996963262557983,0.020000727847218513],[-0.007892747409641743,-0.13000798225402832,0.06510719656944275,-0.14680662751197815,-0.1925583779811859,-0.2252480685710907,-0.021737119182944298,-0.20768390595912933,-0.09359560906887054,-0.05924875661730766,-0.0007374080014415085,-0.06635875254869461,-0.3230225741863251,-0.24857690930366516,0.029540404677391052,-0.2140292078256607,-0.17049777507781982,-0.200017049908638,-0.010958852246403694,-0.2959480881690979,-0.24311164021492004,-0.33567553758621216,-0.2352895587682724,-0.08198309689760208,-0.1350736916065216,-0.28790971636772156,-0.3124922811985016,-0.18401356041431427,-0.12717856466770172,-0.33404821157455444,0.02209506742656231,-0.1718704104423523],[-0.03157845139503479,-0.18950368463993073,-0.2653011083602905,-0.26246458292007446,-0.30110859870910645,-0.08220721036195755,-0.15416431427001953,-0.15304695069789886,-0.07192683219909668,-0.004738279618322849,-0.2821880578994751,-0.045683663338422775,-0.28555235266685486,-0.053880393505096436,-0.04780464246869087,-0.3494926691055298,-0.1995413452386856,-0.17621751129627228,-0.2591983377933502,-0.09293936938047409,-0.0370628796517849,-0.06632678210735321,-0.3956667184829712,-0.17292343080043793,-0.18560294806957245,-0.16976970434188843,-0.2817235291004181,-0.038465093821287155,-0.1621960699558258,-0.1652624011039734,-0.005097357556223869,-0.29322969913482666],[-0.13714443147182465,-0.18897731602191925,-0.3085545599460602,-0.26701465249061584,-0.3294060528278351,-0.19362416863441467,-0.12139537930488586,-0.043664079159498215,-0.07917412370443344,-0.25127074122428894,-0.23902581632137299,-0.13469457626342773,-0.038581911474466324,-0.17534837126731873,-0.24184611439704895,-0.029264546930789948,-0.100367471575737,-0.27726832032203674,-0.20838002860546112,-0.1295352280139923,-0.2979464828968048,0.04565628618001938,-0.22451883554458618,-0.3302622437477112,-0.09598373621702194,0.023143749684095383,-0.15468215942382812,-0.08377104252576828,0.03485148772597313,-0.051569461822509766,-0.08087307959794998,-0.3232392966747284],[-0.27216383814811707,-0.11301237344741821,-0.2648845911026001,-0.3291194438934326,-0.03498927131295204,-0.08525807410478592,-0.08544759452342987,-0.18242736160755157,-0.13724546134471893,-0.26567158102989197,-0.06303339451551437,-0.051339294761419296,-0.21969765424728394,-0.06629430502653122,-0.1976669430732727,-0.08071989566087723,-0.04200391098856926,-0.3100215494632721,-0.21417854726314545,-0.30768781900405884,-0.24229685962200165,0.009883611463010311,-0.18749600648880005,-0.01613006554543972,-0.34599050879478455,-0.002512541599571705,-0.04066770523786545,-0.303495317697525,-0.06186981499195099,-0.0846317857503891,-0.25103074312210083,-0.02265199087560177],[-0.29643383622169495,-0.2510280907154083,-0.04109418764710426,-0.0825478583574295,0.038430217653512955,-0.15885932743549347,-0.2339726835489273,-0.2996465563774109,-0.19082091748714447,-0.19214671850204468,-0.2152339667081833,-0.16184577345848083,0.05693722143769264,-0.3075225055217743,0.03977936506271362,-0.24308469891548157,-0.16947823762893677,-0.052015844732522964,-0.27064579725265503,-0.02926739677786827,-0.023112064227461815,-0.11918628960847855,-0.28022336959838867,-0.25757962465286255,-0.270912230014801,-0.29795676469802856,-0.13644886016845703,-0.17047448456287384,-0.12113511562347412,-0.27919673919677734,0.0708785131573677,-0.052723679691553116],[-0.16770745813846588,-0.2780218720436096,-0.11513195931911469,-0.2857235074043274,-0.2875572144985199,0.06884421408176422,-0.13942566514015198,-0.19079381227493286,-0.1777394413948059,-0.20636320114135742,-0.14027391374111176,-0.1801682710647583,-0.0871972143650055,-0.05123757943511009,-0.12850697338581085,-0.01418281439691782,-0.16876672208309174,0.03911551088094711,-0.30500680208206177,-0.303839772939682,-0.14242643117904663,-0.20773276686668396,-0.11529310047626495,-0.3053675889968872,-0.04038325324654579,-0.1546081304550171,-0.22584083676338196,-0.2536299526691437,-0.32444122433662415,-0.027137789875268936,-0.27540841698646545,0.022039880976080894],[-0.31363150477409363,-0.07394876331090927,-0.006648065056651831,-0.31524398922920227,-0.19609183073043823,-0.03347073122859001,-0.04245530068874359,-0.32232069969177246,-0.231833353638649,-0.2966426610946655,-0.06623903661966324,-0.33792904019355774,0.0019269094336777925,-0.17148670554161072,-0.18790778517723083,-0.26642900705337524,-0.06437249481678009,-0.25920209288597107,-0.21961919963359833,-0.1775221973657608,-0.12646158039569855,-0.028617020696401596,-0.18550725281238556,-0.1942874789237976,-0.2636641561985016,-0.2977955937385559,-0.2229812890291214,-0.10827767848968506,-0.3345009684562683,0.004488163162022829,-0.030228108167648315,-0.09691237658262253],[-0.15630969405174255,-0.15452799201011658,-0.12253594398498535,-0.2820339798927307,0.01732119359076023,-0.06542123109102249,0.03678896650671959,0.04923539608716965,-0.020431574434041977,-0.14007669687271118,-0.030577795580029488,-0.12342776358127594,-0.23263756930828094,-0.20401422679424286,-0.21278807520866394,-0.274732381105423,-0.0070648230612277985,-0.22056564688682556,-0.1211782842874527,-0.307953804731369,-0.3144420385360718,-0.022982744500041008,-0.29281824827194214,-0.32741057872772217,-0.11758143454790115,-0.12778009474277496,-0.27295947074890137,-0.30914634466171265,-0.31177613139152527,-0.12619318068027496,-0.059457991272211075,-0.22487632930278778],[-0.18117035925388336,-0.07266528159379959,-0.16915719211101532,-0.18552961945533752,-0.24107486009597778,-0.14239400625228882,-0.27598845958709717,-0.20570506155490875,-0.05949068441987038,-0.17681899666786194,-0.28531068563461304,-0.3004187047481537,-0.28506672382354736,-0.17136667668819427,-0.16598181426525116,-0.2719499170780182,0.035569868981838226,-0.302558571100235,-0.1061081737279892,-0.23531298339366913,-0.051583144813776016,-0.23439307510852814,-0.24477598071098328,-0.1295681595802307,-0.3198939263820648,0.015214312821626663,-0.31417447328567505,-0.005212648771703243,-0.0811534896492958,-0.3426101505756378,0.011112484149634838,-0.028044171631336212],[0.030327431857585907,-0.16672265529632568,-0.21103103458881378,-0.30504363775253296,-0.2889573872089386,-0.01473609171807766,-0.12410096824169159,-0.14539174735546112,-0.21441511809825897,-0.04644455388188362,-0.06504015624523163,-0.15120947360992432,-0.019843263551592827,-0.20423342287540436,-0.2760770916938782,-0.07668209820985794,-0.29380348324775696,-0.32202020287513733,-0.04623265936970711,-0.2613624930381775,-0.0952969342470169,-0.17327867448329926,-0.027202557772397995,-0.2889653742313385,-0.23550152778625488,-0.2684650421142578,-0.012102649547159672,-0.02692984975874424,-0.01555066742002964,-0.32419121265411377,-0.30326026678085327,-0.2985398471355438],[0.00970742292702198,-0.055969350039958954,-0.24739661812782288,-0.15589512884616852,-0.033689945936203,-0.2955581247806549,0.04150889441370964,-0.24057309329509735,-0.3032931089401245,-0.09986544400453568,-0.351959764957428,-0.09899801760911942,-0.24602237343788147,-0.15979237854480743,0.028357116505503654,-0.11656399071216583,-0.2340448945760727,-0.01894235797226429,-0.03926512226462364,-0.1423387974500656,-0.13074466586112976,-0.24026739597320557,-0.24177615344524384,-0.23501954972743988,-0.09769313782453537,-0.19993193447589874,-0.17342475056648254,-0.10839381068944931,-0.17206622660160065,-0.2562357783317566,-0.15255610644817352,-0.07847174257040024],[-0.20423611998558044,-0.1709330976009369,-0.12738434970378876,-0.1555550992488861,-0.11875956505537033,-0.2531450390815735,-0.30067479610443115,-0.1750357300043106,0.0076263779774308205,-0.11434333026409149,-0.1529073566198349,-0.12501394748687744,-0.2507917881011963,-0.18208195269107819,-0.058408528566360474,-0.11531202495098114,-0.3190135657787323,-0.0008012449252419174,0.024710500612854958,-0.1548006534576416,-0.22616590559482574,-0.10685263574123383,-0.11909930408000946,-0.15562912821769714,-0.08635394275188446,-0.15592466294765472,-0.13995593786239624,0.007462217006832361,-0.29706305265426636,-0.24760794639587402,-0.30718278884887695,-0.2645959258079529],[-0.2908700406551361,0.009706742130219936,-0.3622668385505676,-0.22676758468151093,-0.3527720868587494,0.02505938522517681,0.041303325444459915,-0.1983787715435028,-0.07339568436145782,0.02352963387966156,-0.0496712252497673,-0.30430763959884644,-0.08290929347276688,-0.25405481457710266,-0.3179713785648346,0.005342621821910143,-0.04752083495259285,-0.23047707974910736,-0.09714742749929428,-0.23945802450180054,-0.07885219156742096,-0.3042367100715637,-0.2183237075805664,-0.18891900777816772,-0.31516233086586,-0.3088618516921997,-0.22652997076511383,-0.21105851233005524,-0.06626021862030029,0.027264513075351715,0.021000191569328308,-0.2315923124551773],[-0.0663653239607811,-0.2947539687156677,-0.2863612473011017,-0.32161471247673035,-0.18211577832698822,-0.023111477494239807,-0.28062161803245544,0.010895331390202045,-0.3264012932777405,-0.05073457211256027,-0.34068799018859863,-0.26861676573753357,-0.004393040668219328,-0.08256226032972336,-0.23296597599983215,-0.32408249378204346,-0.113795705139637,-0.1820438653230667,-0.10363583266735077,-0.11088923364877701,-0.13430985808372498,-0.018420929089188576,-0.08339083939790726,-0.15417742729187012,-0.1848556250333786,-0.042289525270462036,-0.23838508129119873,-0.11416736990213394,-0.06037957966327667,-0.2903079390525818,0.012063446454703808,-0.3210616409778595],[0.04175089672207832,-0.20374280214309692,-0.19950984418392181,-0.2807754874229431,-0.2853952944278717,-0.10724614560604095,-0.24106566607952118,-0.07791437208652496,-0.18724922835826874,-0.24745436012744904,-0.1882840394973755,-0.29894253611564636,-0.289128839969635,-0.05075015872716904,0.02732096239924431,0.014135884121060371,-0.301120400428772,-0.22606809437274933,-0.2656596899032593,-0.17497402429580688,-0.298335462808609,-0.25113609433174133,-0.0738721713423729,-0.2596769332885742,-0.13230812549591064,-0.17668473720550537,-0.1057470440864563,-0.20814527571201324,-0.18753498792648315,-0.23857970535755157,0.05577445402741432,0.008055211044847965],[-0.30024904012680054,0.0028310802299529314,-0.06054597720503807,-0.04056930914521217,-0.10210536420345306,-0.032936498522758484,-0.1890297830104828,-0.2954147458076477,-0.25284966826438904,-0.030925678089261055,-0.15305809676647186,-0.3135853409767151,-0.081450454890728,0.034575048834085464,-0.15698111057281494,-0.3070186972618103,-0.1038721427321434,-0.31478995084762573,-0.2934775650501251,-0.2394266277551651,-0.287958025932312,-0.3198867738246918,-0.035523030906915665,-0.07696982473134995,-0.3061716556549072,-0.2298589050769806,-0.12596558034420013,-0.015893159434199333,-0.0643482580780983,-0.2419205904006958,-0.1663384884595871,0.026260962709784508]],"biases":[-0.18020184338092804,-0.21490848064422607,-0.41494646668434143,-0.3553088903427124,-0.2723648250102997,-0.2581755518913269,-0.3317457437515259,-0.10779988020658493,-0.1725648045539856,-0.26841849088668823,-0.26304391026496887,-0.21217741072177887,-0.24141396582126617,-0.27643370628356934,-0.18982192873954773,-0.14394374191761017,-0.2925868630409241,-0.11003152281045914,-0.10726697742938995,-0.07587138563394547,-0.2105252593755722,-0.44012710452079773,-0.0904821828007698,-0.39923182129859924,-0.2116871327161789,-0.4130510091781616,-0.2096061259508133,-0.13941673934459686,-0.35489654541015625,-0.11239282786846161,-0.3276735246181488,-0.20597584545612335,-0.3071820139884949,-0.2969392240047455,-0.14805877208709717,-0.3393273651599884,-0.23289763927459717,-0.15197083353996277,-0.39445024728775024,-0.19247153401374817,-0.2075543850660324,-0.40355250239372253,-0.3745279014110565,-0.297058641910553,-0.28259900212287903,-0.08747591078281403,-0.46255823969841003,-0.4297342300415039,-0.39701008796691895,-0.21416041254997253,-0.3488615155220032,-0.44125840067863464,-0.39044898748397827,-0.2786025106906891,-0.10189788788557053,-0.2869199216365814,-0.08542967587709427,-0.23008175194263458,-0.4571256935596466,-0.3804108202457428,-0.26210707426071167,-0.24869927763938904,-0.13527770340442657,-0.3325985372066498]}],"inputLookup":null,"inputLookupLength":0,"outputLookup":null,"outputLookupLength":0,"options":{"inputSize":0,"outputSize":0,"binaryThresh":0.5},"trainOpts":{"activation":"sigmoid","iterations":20000,"errorThresh":0.005,"log":false,"logPeriod":10,"leakyReluAlpha":0.01,"learningRate":0.3,"momentum":0.1,"callbackPeriod":10,"timeout":"Infinity","beta1":0.9,"beta2":0.999,"epsilon":1e-8}}